{"layers":[{"out_depth":10,"out_sx":1,"out_sy":1,"layer_type":"input"},{"out_depth":20,"out_sx":1,"out_sy":1,"layer_type":"fc","num_inputs":10,"l1_decay_mul":0,"l2_decay_mul":1,"filters":[{"sx":1,"sy":1,"depth":10,"w":{"0":-0.16297512041473203,"1":-0.2670353709318513,"2":0.102233940909194,"3":-0.018311373012961228,"4":0.2546320356395067,"5":0.4385178243169773,"6":0.16328562762642018,"7":-0.4719240462807919,"8":-0.4813678606585221,"9":0.10801137058698704}},{"sx":1,"sy":1,"depth":10,"w":{"0":-0.31970407214535324,"1":-0.36953296655465406,"2":0.00725130922644433,"3":-0.36858113370467205,"4":-0.32493282327488077,"5":-0.36313291735709646,"6":-0.36463959886907127,"7":0.30660027848372284,"8":-0.1140781039057061,"9":-0.15779323536759343}},{"sx":1,"sy":1,"depth":10,"w":{"0":-0.23779541822992273,"1":-0.2512885653371849,"2":0.0023370475669467683,"3":0.31351766507126766,"4":-0.07667830350324727,"5":0.1501043304005977,"6":-0.38595436707208614,"7":-0.3674054971743022,"8":0.02772646973893655,"9":0.13598591255752984}},{"sx":1,"sy":1,"depth":10,"w":{"0":0.1347287868721802,"1":0.17273823773676653,"2":0.08543919605377932,"3":-0.02643999016011902,"4":-0.09780130517732843,"5":-0.15678193443290647,"6":-0.11441962766809698,"7":-0.18985134404818915,"8":0.04192588544532759,"9":-0.2659936183494878}},{"sx":1,"sy":1,"depth":10,"w":{"0":-0.20738813436121253,"1":0.18388370898057585,"2":0.0221048080171538,"3":0.09378260741203163,"4":-0.2679117007051889,"5":-0.034364965840106995,"6":-0.056325388849626706,"7":-0.20321098122049183,"8":0.0358090788835112,"9":0.2278837057866284}},{"sx":1,"sy":1,"depth":10,"w":{"0":-0.06710275508187971,"1":0.06563663528254333,"2":0.008323317340210839,"3":-0.22875934583880983,"4":-0.13893961480739236,"5":-0.4747189608930778,"6":0.06161528836988839,"7":0.23954097262030358,"8":-0.07566103295351889,"9":-0.3654193209794503}},{"sx":1,"sy":1,"depth":10,"w":{"0":-0.32573909506436466,"1":-0.16320203058132388,"2":-0.13672138546872165,"3":-0.08201458992315137,"4":-0.2940543747053865,"5":0.6319218204160768,"6":0.010573870063040166,"7":0.46781200784272237,"8":-0.1421044442428744,"9":-0.1400999381573066}},{"sx":1,"sy":1,"depth":10,"w":{"0":0.03817562958247043,"1":-0.383619343744258,"2":-0.1931397160591603,"3":-0.4034927709186618,"4":0.5537742112235028,"5":-0.044810474253090773,"6":-0.30151722916648577,"7":-0.1275112971501184,"8":0.23377073698603443,"9":0.1898483174484608}},{"sx":1,"sy":1,"depth":10,"w":{"0":-0.04291687029303962,"1":-0.27378864883395004,"2":-0.07282451725714165,"3":-0.1979801345203652,"4":-0.1881414122860452,"5":0.037069012783475214,"6":-0.08138474359029052,"7":0.2969663671419408,"8":-0.3615162125893691,"9":-0.07912039528275847}},{"sx":1,"sy":1,"depth":10,"w":{"0":-0.5282657252729759,"1":-0.06457371065984147,"2":-0.013953796240142658,"3":-0.14468377397174198,"4":-0.09015287254849416,"5":-0.21105234271340242,"6":-0.1219685082111476,"7":0.22983494693669468,"8":-0.0033997184135769404,"9":-0.20032076920866174}},{"sx":1,"sy":1,"depth":10,"w":{"0":-0.2882338871097281,"1":0.003992154673678297,"2":-0.2381100221113969,"3":-0.18505838982013978,"4":-0.23854020072828816,"5":-0.22235152263697056,"6":0.41337427522130776,"7":0.2067843070723862,"8":-0.41487390202648183,"9":0.272154196076067}},{"sx":1,"sy":1,"depth":10,"w":{"0":-0.4425082080736063,"1":-0.3709203419417527,"2":-0.19469449269082237,"3":-0.010012128738853059,"4":0.0905363297616534,"5":0.260793506506976,"6":0.4604282175203003,"7":-0.7894462058005514,"8":0.08984308719642223,"9":-0.16027994621195407}},{"sx":1,"sy":1,"depth":10,"w":{"0":-0.2484920861627341,"1":0.4162191430860636,"2":-0.04477553728776279,"3":-0.1549131056371347,"4":-0.08171921200899261,"5":0.18334662343135336,"6":0.06177315741945105,"7":0.04154681996598701,"8":-0.02327554701740488,"9":-0.1687883352420559}},{"sx":1,"sy":1,"depth":10,"w":{"0":0.12665763382368866,"1":-0.27563505293600754,"2":-0.09307851716371848,"3":0.08944841172399833,"4":0.15551363660962947,"5":0.18494832683751514,"6":0.4664644452484674,"7":0.07675778684889763,"8":0.0576855876919336,"9":0.4521345854498454}},{"sx":1,"sy":1,"depth":10,"w":{"0":-0.1347544918196031,"1":0.06191883241458671,"2":0.03784064466638953,"3":-0.39535076272198033,"4":0.3078557426590588,"5":0.2738786878161363,"6":-0.12377742578825633,"7":-0.15301584417755604,"8":-0.2628087644728389,"9":0.06548889459379408}},{"sx":1,"sy":1,"depth":10,"w":{"0":-0.09380465713860107,"1":0.37429093333208224,"2":0.3979170170587779,"3":-0.1376395885948798,"4":0.04029260485940577,"5":-0.5357716156724502,"6":0.2346622053819758,"7":0.41063713010676733,"8":0.21227083578910574,"9":0.2427284152920198}},{"sx":1,"sy":1,"depth":10,"w":{"0":0.20901763217486607,"1":0.0480766750698151,"2":-0.31364525552337597,"3":-0.3247792182240231,"4":-0.1361121819511557,"5":-0.0839108893743979,"6":-0.07337034326923161,"7":0.09023805953698286,"8":-0.08192807696886452,"9":0.006299903540843742}},{"sx":1,"sy":1,"depth":10,"w":{"0":-0.06048601247621461,"1":0.11427403078549878,"2":0.2880865874181844,"3":-0.11172248830693769,"4":-0.10958172749244308,"5":-0.1303892212018464,"6":-0.08578120676319882,"7":-0.19275981343687204,"8":0.14051189973972247,"9":-0.11911876651161736}},{"sx":1,"sy":1,"depth":10,"w":{"0":-0.10022865827692794,"1":-0.2261794229020727,"2":-0.09442113977205735,"3":0.021536535777907186,"4":0.22848845475722573,"5":-0.1477508125662483,"6":0.5246932327600884,"7":-0.42442395253706466,"8":0.10575016989834153,"9":-0.1809481173382733}},{"sx":1,"sy":1,"depth":10,"w":{"0":0.04919647722997139,"1":-0.3614838927486216,"2":0.01878576534928636,"3":-0.18182804135850472,"4":-0.19300998118961243,"5":0.4073396992717976,"6":0.165891816382157,"7":-0.4718643902445119,"8":-0.24452089627239376,"9":0.1044461750687571}}],"biases":{"sx":1,"sy":1,"depth":20,"w":{"0":-0.033890230721426946,"1":-0.010043419261258676,"2":0.1,"3":0.1,"4":0.0849398342305097,"5":0.007803431165493344,"6":0.06826450526152791,"7":0.0016325576574438207,"8":0.04640522170914227,"9":-0.02356145407708623,"10":0.000930653217436134,"11":-0.04308090635954928,"12":0.08653860144006364,"13":0.22381527535153384,"14":-0.0413654019816303,"15":0.24236792428912343,"16":0.09240480579520989,"17":0.06759360003654483,"18":0.07192604005694382,"19":0.1}}},{"out_depth":20,"out_sx":1,"out_sy":1,"layer_type":"relu"},{"out_depth":20,"out_sx":1,"out_sy":1,"layer_type":"fc","num_inputs":20,"l1_decay_mul":0,"l2_decay_mul":1,"filters":[{"sx":1,"sy":1,"depth":20,"w":{"0":-0.05776562441762487,"1":0.18718745197796915,"2":0.021117214203027992,"3":-0.2819687158728818,"4":0.04057843345255097,"5":-0.15541068322832424,"6":-0.19444839899505048,"7":-0.04339790399524085,"8":0.278879571110723,"9":0.049079550991239326,"10":0.20411980005079763,"11":-0.05752539392293286,"12":-0.16476160072222568,"13":-0.14256749381256503,"14":0.26275132780991545,"15":0.013407148453495853,"16":0.23093888904413162,"17":0.20489808577829366,"18":0.07307153740441649,"19":-0.17844018608993034}},{"sx":1,"sy":1,"depth":20,"w":{"0":0.22332180498753448,"1":0.04791239756090694,"2":-0.04061954680709912,"3":0.20479389813495197,"4":-0.012409698928365893,"5":0.008953616180837957,"6":0.0809332684462442,"7":-0.31485585396107574,"8":-0.13269784448478583,"9":-0.07542104420969853,"10":0.07002703767154511,"11":0.02221635063271926,"12":0.1705246405475871,"13":-0.23279034113228264,"14":0.20236922786574835,"15":-0.02701738661357359,"16":0.0545370734991006,"17":-0.20749785351768552,"18":-0.015507456369351436,"19":-0.16521292892281755}},{"sx":1,"sy":1,"depth":20,"w":{"0":0.07006598837704996,"1":-0.3459470831957258,"2":0.1181872583788782,"3":0.022316984665588405,"4":-0.21829996549806865,"5":-0.0375263671935964,"6":-0.11095713976899678,"7":-0.2806120194394986,"8":0.2325082779461328,"9":-0.19706580543821334,"10":-0.41420318568655146,"11":0.04152693910613938,"12":0.1988624613416131,"13":-0.1271247930231007,"14":-0.14276159611605577,"15":0.03540251013605518,"16":-0.2200996024956138,"17":-0.00426809391430076,"18":0.003551250876160059,"19":-0.18279951336222078}},{"sx":1,"sy":1,"depth":20,"w":{"0":0.29710996232522097,"1":-0.2245231698201724,"2":0.012744630969946089,"3":-0.18744730739865675,"4":0.009996858506543667,"5":-0.18567514259741869,"6":0.012734892874461612,"7":0.19686595494294898,"8":0.02878873740125785,"9":0.14701129108210453,"10":0.0999992349990476,"11":-0.21413431421625134,"12":-0.07377497218226708,"13":-0.3369164615394391,"14":-0.11726394835655436,"15":-0.01123730124967215,"16":-0.13973517655459392,"17":0.06203183144978001,"18":-0.07909433474949884,"19":0.173436701519288}},{"sx":1,"sy":1,"depth":20,"w":{"0":0.25910597089941984,"1":-0.1398160093792703,"2":-0.09108741046544086,"3":0.03914054948668435,"4":0.2260710494743397,"5":-0.06025545666913604,"6":-0.37329118004377065,"7":-0.11171514727900034,"8":0.06572685465351899,"9":-0.006558767663545934,"10":0.014667045752570435,"11":-0.26995757332187953,"12":0.09817098419921921,"13":-0.04951539965252552,"14":-0.27186113456815963,"15":-0.06017527759568308,"16":-0.24891854764593188,"17":0.1907059095270661,"18":-0.20168116399475916,"19":0.22626893627079894}},{"sx":1,"sy":1,"depth":20,"w":{"0":0.11536138345409548,"1":0.02591385530273532,"2":-0.012539986989860908,"3":0.2730836887261629,"4":0.1309648722997214,"5":0.0008455954228890416,"6":-0.1773844574817449,"7":-0.15250657065793677,"8":-0.12453391422435116,"9":0.14333471410067386,"10":-0.13553129298214098,"11":-0.027950656836357727,"12":0.021153624923050136,"13":0.01974846413033463,"14":-0.14084096336124524,"15":-0.296349902698559,"16":0.02035852544428737,"17":0.01936640968763649,"18":0.1278070121153774,"19":0.02729784567903441}},{"sx":1,"sy":1,"depth":20,"w":{"0":0.10503131997865742,"1":0.11019315908519323,"2":-0.055402390991456586,"3":-0.09276147262187401,"4":0.2817701978056481,"5":0.10696586580450816,"6":0.0643069669653593,"7":0.24004138824526605,"8":-0.0013419384218554843,"9":0.36488536943173794,"10":-0.21175737635733116,"11":-0.017070100324872422,"12":0.15047464125740273,"13":-0.14641021301111232,"14":-0.03807652254774265,"15":-0.17265397583272055,"16":0.3774838664619802,"17":-0.10159328758427877,"18":-0.1616356186345867,"19":-0.029757006039833653}},{"sx":1,"sy":1,"depth":20,"w":{"0":0.14185376637130248,"1":0.362426384490579,"2":0.03112479020843321,"3":-0.06199122129489156,"4":-0.10081474318918475,"5":0.043175687396524984,"6":0.05736702056877401,"7":0.03060755688656006,"8":0.049205509078434816,"9":-0.03228591323881091,"10":-0.2157856927217398,"11":0.07300181884806292,"12":0.08888344057942278,"13":-0.08315465187290587,"14":-0.038197416440033605,"15":-0.06242905711038623,"16":0.04739836540123595,"17":-0.15345991962108024,"18":-0.22672660366505804,"19":0.06083358602962912}},{"sx":1,"sy":1,"depth":20,"w":{"0":0.015676851965242024,"1":-0.0778972373519342,"2":0.157346307786415,"3":-0.06375086538775059,"4":-0.17191813631322408,"5":-0.08613183843072891,"6":-0.04382748372878222,"7":0.07004718307217636,"8":-0.16488282381246333,"9":-0.11335036565171423,"10":-0.12286289228853901,"11":-0.10591431573100878,"12":-0.16228879711864871,"13":-0.03800456269095464,"14":-0.07163720437158547,"15":-0.11910780951360773,"16":0.08219492347946489,"17":-0.1221113781579982,"18":-0.22529658971306332,"19":-0.16503962649916917}},{"sx":1,"sy":1,"depth":20,"w":{"0":0.2614756573515875,"1":0.03752964287946082,"2":-0.05535859082383551,"3":-0.006013884755909111,"4":0.2729978093972113,"5":0.2502053541849935,"6":0.11099008127884147,"7":-0.006432241570294783,"8":-0.06475277285550446,"9":-0.179403593986586,"10":-0.2370764810356944,"11":0.12427050599904585,"12":-0.14445859512255463,"13":-0.24462536538917096,"14":-0.12264074237373906,"15":-0.1908171683946904,"16":0.1880315040259001,"17":0.012957907732191725,"18":0.1631772875714462,"19":0.09110314262779795}},{"sx":1,"sy":1,"depth":20,"w":{"0":-0.07485579410204352,"1":-0.21250641051817895,"2":-0.20837705271150267,"3":-0.14197987146437197,"4":-0.09809588892333661,"5":-0.18795794608876115,"6":-0.03355993581613806,"7":0.07630875988244522,"8":-0.15363040553607077,"9":-0.24320299980469964,"10":0.03310618514182857,"11":-0.1192624807504367,"12":-0.09640459505305789,"13":-0.20624477244328912,"14":-0.12091494072544855,"15":-0.17432317785421628,"16":-0.3456217735781775,"17":0.007975780200094105,"18":0.03178511049336051,"19":-0.10709568141922475}},{"sx":1,"sy":1,"depth":20,"w":{"0":-0.1498911274347344,"1":-0.0668268356957002,"2":0.22107805504550782,"3":-0.04121588760694274,"4":0.05427314292962974,"5":0.06044435729074802,"6":-0.21619955015661022,"7":-0.07378658497134205,"8":0.07365293999928278,"9":-0.29164337744609303,"10":0.03199001502099942,"11":0.1772063638490512,"12":0.02514305690873104,"13":0.0966644129064575,"14":-0.12220719330104167,"15":-0.12577221204301814,"16":0.35806594987011187,"17":0.13641751570307334,"18":-0.1496710462374141,"19":0.24228913775543284}},{"sx":1,"sy":1,"depth":20,"w":{"0":0.03253303872908723,"1":0.17787184311884965,"2":0.13325057625875766,"3":-0.014732649539225286,"4":-0.08787747803132444,"5":-0.02665804425667504,"6":-0.012451149408182824,"7":0.36954855523099545,"8":0.0493764534322813,"9":-0.0076218799667331005,"10":-0.41666947433090534,"11":0.2679348714057976,"12":-0.10188112110259279,"13":-0.20555648794306874,"14":0.06725148509145208,"15":-0.32373289730441684,"16":0.12966564683912257,"17":0.08663899825271137,"18":-0.24731001114746223,"19":0.20706710841250892}},{"sx":1,"sy":1,"depth":20,"w":{"0":-0.060014185254383734,"1":0.2797144368631033,"2":-0.10875775552180039,"3":0.3301809737152695,"4":-0.06266642447856226,"5":-0.0701288037997226,"6":0.017255742802354278,"7":-0.08437688750361028,"8":-0.07832552640027286,"9":0.09422851225822407,"10":0.019656607891647672,"11":-0.020463103451092753,"12":0.1407946682338968,"13":-0.1285391094281226,"14":0.3336191971876609,"15":-0.02395952025249199,"16":-0.05571872905829247,"17":-0.00019560762144137708,"18":0.033048517157656256,"19":-0.20224170125032845}},{"sx":1,"sy":1,"depth":20,"w":{"0":-0.23828993277421112,"1":0.0911802435832975,"2":-0.075103120895878,"3":0.02136371398761676,"4":0.13163768877121282,"5":0.4381880259023035,"6":-0.2966140482612584,"7":0.02785001801577865,"8":0.04392378247957247,"9":-0.01497439344173234,"10":-0.11656377610003804,"11":-0.15791289847666873,"12":-0.10600480267373917,"13":0.0694227708036755,"14":-0.36483702283651814,"15":-0.18024220474338185,"16":-0.09381997572763363,"17":-0.14060019501434493,"18":0.07671030752489494,"19":0.07630781550025012}},{"sx":1,"sy":1,"depth":20,"w":{"0":-0.006130333394359086,"1":-0.024093971350000756,"2":0.16927912619360422,"3":-0.19079217745820942,"4":0.20446435152711073,"5":-0.23969591239717403,"6":0.10928413357566712,"7":0.05009840389450139,"8":0.0994003944809619,"9":-0.06560565802253339,"10":-0.04723571104184031,"11":0.0014506635437311487,"12":0.010863250968237396,"13":0.05424364301087612,"14":-0.17948786884797863,"15":-0.08833193629940395,"16":0.00922809845605194,"17":0.10934553562713271,"18":-0.006422862991651241,"19":-0.06556391514411948}},{"sx":1,"sy":1,"depth":20,"w":{"0":-0.14829298855848116,"1":0.37324206834640283,"2":0.09953532094896778,"3":0.042395059191708946,"4":-0.13331560778546253,"5":0.28594941980589506,"6":-0.12433887152793505,"7":0.07095849422165029,"8":0.04211193720528848,"9":0.122761707441409,"10":-0.106197221869217,"11":0.0014491439940235128,"12":-0.18057357586390002,"13":0.10360326484885105,"14":0.04530737704066069,"15":-0.17283273258277165,"16":0.07558687767574557,"17":0.01767105329753353,"18":-0.1918226114264924,"19":0.13439424947283515}},{"sx":1,"sy":1,"depth":20,"w":{"0":0.012037374464783833,"1":0.13721067470493647,"2":0.030800601915545282,"3":-0.15608935496391702,"4":0.011002241453818274,"5":-0.08473913687531667,"6":-0.08000070393954133,"7":-0.16717259789889502,"8":0.10848520825210735,"9":0.012573338916704905,"10":-0.028115822924396103,"11":-0.1664894226394668,"12":0.09274218786883791,"13":-0.13705434090150737,"14":0.28662110575404753,"15":0.013910756053270367,"16":-0.014744598743816258,"17":-0.5194404600148097,"18":-0.021140640491015755,"19":-0.140122085535967}},{"sx":1,"sy":1,"depth":20,"w":{"0":0.03417783350582994,"1":-0.10163103386728976,"2":-0.03702716951052824,"3":-0.0859866222805406,"4":-0.16954471770810672,"5":-0.12265251001110726,"6":-0.0718168356000899,"7":0.0551289326237113,"8":0.07965237724856082,"9":-0.13021369263851904,"10":0.12337089011227,"11":0.013940280782967314,"12":-0.31491421794176033,"13":-0.025846200371404334,"14":0.04205459238305544,"15":-0.06206149746748788,"16":0.020033210425402556,"17":-0.11696821669909864,"18":-0.07285059921278682,"19":-0.15009860731414662}},{"sx":1,"sy":1,"depth":20,"w":{"0":-0.18720966882035955,"1":0.039371171080031325,"2":0.0750993187021953,"3":0.3566127566290255,"4":-0.26072087515697034,"5":-0.2480457130983434,"6":-0.07013256414787089,"7":0.14847634330880488,"8":0.0464338210347563,"9":0.09411579748996632,"10":-0.1404562465873187,"11":-0.2350766431213759,"12":-0.02380936741483665,"13":-0.0943535683409293,"14":0.04243100809444669,"15":-0.19854291288846374,"16":0.20038145927648635,"17":-0.18529555007176776,"18":0.150742954906121,"19":0.06693358929906035}}],"biases":{"sx":1,"sy":1,"depth":20,"w":{"0":0.034496851410893384,"1":0.0510393318266272,"2":0.1,"3":0.028925335438451875,"4":0.07820822524145124,"5":0.08048471571574553,"6":0.07073753482763447,"7":0.05020508841242206,"8":0.09634990594130198,"9":0.015326223777652033,"10":0.1,"11":0.009977934083723326,"12":0.08172715334731556,"13":-0.050040046981910224,"14":0.08162067414305185,"15":0.038231681852302454,"16":-0.07145350221809756,"17":0.1,"18":0.06281014994190504,"19":0.01013487762189565}}},{"out_depth":20,"out_sx":1,"out_sy":1,"layer_type":"relu"},{"out_depth":20,"out_sx":1,"out_sy":1,"layer_type":"fc","num_inputs":20,"l1_decay_mul":0,"l2_decay_mul":1,"filters":[{"sx":1,"sy":1,"depth":20,"w":{"0":-0.05483829382189028,"1":0.12977998607364674,"2":-0.2457924461521867,"3":0.08391220805261347,"4":0.3067147770826121,"5":-0.006306710409676904,"6":0.012445630922737911,"7":-0.012759389363320115,"8":-0.16059218927335286,"9":-0.14990457442811359,"10":0.174133635119456,"11":-0.06396384674017044,"12":0.023648597533580847,"13":-0.010769416438570522,"14":0.17431347694929367,"15":-0.21366104518958212,"16":-0.11245228538566111,"17":-0.3441452017830382,"18":-0.0443998165845853,"19":-0.13197368859355052}},{"sx":1,"sy":1,"depth":20,"w":{"0":-0.05758483778512631,"1":0.0838704362513801,"2":0.01614434718159312,"3":-0.09539447397105015,"4":-0.17183474026550305,"5":-0.17068402770270855,"6":-0.11146833581799544,"7":-0.08380965571265005,"8":-0.1508285614871808,"9":-0.06285130388655985,"10":-0.08037745968468131,"11":-0.24848482284199735,"12":0.1078078713817487,"13":0.08497710050961371,"14":-0.002647931461798035,"15":-0.49831208110614494,"16":-0.10697613250572209,"17":-0.0022255297147872337,"18":-0.26913886943734694,"19":-0.019464287554992365}},{"sx":1,"sy":1,"depth":20,"w":{"0":-0.09423084330856824,"1":-0.017133983305460898,"2":-0.011049919294696954,"3":-0.028120909499361156,"4":-0.16602316255469846,"5":0.052891013806229,"6":0.026400546181153558,"7":-0.02649045313192872,"8":0.02868873195161643,"9":0.10361889395473099,"10":0.09342914432249066,"11":0.11374956515880165,"12":0.04496815830721404,"13":0.28099062705132305,"14":0.02388365998103105,"15":-0.05445748638642766,"16":0.016359489136604267,"17":-0.22204463918807732,"18":-0.07845514679046013,"19":0.0320647696243009}},{"sx":1,"sy":1,"depth":20,"w":{"0":-0.015218912442337338,"1":0.12777316881787076,"2":0.01722319750730148,"3":-0.031188434850118248,"4":-0.13830391755733207,"5":-0.024734548347640762,"6":-0.2764151770308213,"7":-0.33570537791876875,"8":0.035985901573741444,"9":-0.11895244171130047,"10":0.053319231341178726,"11":0.0009864909912181829,"12":0.01911339987732152,"13":0.26436309301290495,"14":-0.1391087661613738,"15":-0.3234050004815287,"16":0.04873786495136718,"17":0.02097034110210099,"18":-0.10398205975191444,"19":-0.04822737370382725}},{"sx":1,"sy":1,"depth":20,"w":{"0":0.0058634911001473194,"1":-0.07632195574956518,"2":0.021491631444914255,"3":-0.15410500084932416,"4":-0.02739522055553371,"5":-0.15082688865201796,"6":0.2691730709842151,"7":-0.041772662213490144,"8":-0.24413355869408562,"9":0.0617673363029403,"10":0.09394889319988951,"11":-0.14088513562042515,"12":-0.1515432673832842,"13":0.1809507048137528,"14":-0.020478426982175953,"15":-0.009868774460838734,"16":0.1047541715868617,"17":-0.1706088353335285,"18":0.025408508707712354,"19":0.14109379963929514}},{"sx":1,"sy":1,"depth":20,"w":{"0":-0.1990296455435454,"1":0.30663990911329503,"2":-0.02703743516288058,"3":-0.13159448305615556,"4":-0.05895150772482846,"5":0.02270752398305118,"6":0.02950538999069548,"7":-0.333397743721673,"8":-0.12981722369779122,"9":-0.15732526400016544,"10":0.08366357509710591,"11":0.05469734961151297,"12":0.3290341731850151,"13":-0.03729500786017907,"14":-0.03420812119579065,"15":-0.367725373390386,"16":-0.09874127137211097,"17":0.23729278971599144,"18":-0.0635356295395448,"19":0.13074748961610935}},{"sx":1,"sy":1,"depth":20,"w":{"0":0.09926269358328142,"1":-0.06906323929042361,"2":-0.22234249471340786,"3":-0.08853130892187717,"4":-0.02050870692362412,"5":-0.0848621682016473,"6":0.20181370898822584,"7":0.06929236051366423,"8":-0.1284925896457734,"9":-0.3121915329081689,"10":0.2842010979794919,"11":-0.1730795264277733,"12":0.1348700449944871,"13":-0.22843177479650223,"14":0.03262966338823211,"15":-0.0691367909743914,"16":0.15946326519371024,"17":-0.12988704441906068,"18":0.03462712986752749,"19":0.07924695709229229}},{"sx":1,"sy":1,"depth":20,"w":{"0":-0.3940059331530044,"1":-0.04948098832446716,"2":-0.010430141754588954,"3":0.007778456255376089,"4":0.03875749877874344,"5":-0.10759017115848722,"6":-0.10769033286866571,"7":-0.1675389056402261,"8":0.09060174954245552,"9":-0.06533500757506762,"10":-0.03842017830989081,"11":-0.040673210461558855,"12":0.12765250826722757,"13":0.11373043475028502,"14":0.027128137271076134,"15":-0.11659464483009824,"16":-0.06342332678750955,"17":0.3109406914627517,"18":0.22519197091648513,"19":0.0049167082500665505}},{"sx":1,"sy":1,"depth":20,"w":{"0":-0.0970736694025932,"1":0.10739712038966343,"2":-0.017176873954469006,"3":-0.06459387891968471,"4":0.05107960378843502,"5":-0.02761944212208853,"6":0.10820892092525673,"7":0.09735660997641593,"8":-0.016846280932333858,"9":-0.06042658819852077,"10":-0.11097469772437381,"11":-0.2068364306686283,"12":0.048566861146890815,"13":0.12479736505261095,"14":0.21356430061410706,"15":0.023488366919230872,"16":-0.2514707648919583,"17":0.12761396288353577,"18":0.12166237683000677,"19":-0.005998007506201167}},{"sx":1,"sy":1,"depth":20,"w":{"0":0.07550296790466611,"1":0.26665622318411836,"2":-0.0346418645220866,"3":-0.13592744587775765,"4":-0.1494979941042825,"5":-0.0360111578969784,"6":-0.071141899570606,"7":-0.209691323607219,"8":-0.08413930496705825,"9":-0.3282125532079819,"10":-0.12377586007870217,"11":0.2174004129810679,"12":0.0767680519163637,"13":-0.0601671597435916,"14":0.22884733169570487,"15":-0.16972367890203774,"16":0.15764096640580363,"17":0.39161994154279967,"18":-0.010098179227115155,"19":-0.07772755667898945}},{"sx":1,"sy":1,"depth":20,"w":{"0":0.017841349588740306,"1":-0.19315255103417375,"2":0.04594781265596204,"3":0.07684920620879686,"4":-0.2143913555120106,"5":-0.19889592961407174,"6":0.15406125679529745,"7":0.09872690590832973,"8":-0.1655431723630496,"9":0.055697792623938744,"10":-0.12864864458843367,"11":-0.1873630890183664,"12":-0.04523304955205141,"13":0.015173031598286152,"14":-0.1454704612112344,"15":0.0037970050571560134,"16":0.05957301680260588,"17":0.13906627997712717,"18":0.22577556273181892,"19":-0.004738958108936833}},{"sx":1,"sy":1,"depth":20,"w":{"0":-0.10954142013335633,"1":0.08896087907452291,"2":0.04118362941659883,"3":-0.002732894479725694,"4":0.08244125602403672,"5":-0.08867630730709512,"6":-0.08956210811086074,"7":-0.058382279105782135,"8":0.30811494947520335,"9":-0.02646655539816292,"10":-0.07859874194217448,"11":-0.15018154249020543,"12":0.04984963960897468,"13":0.16185126540922065,"14":0.06361030759547076,"15":-0.3509758465817557,"16":-0.17211762953094176,"17":0.10180948925399098,"18":-0.038454950534676326,"19":0.043700227077297676}},{"sx":1,"sy":1,"depth":20,"w":{"0":-0.14084365863150639,"1":0.03676366018315331,"2":-0.26166004555828787,"3":-0.02677498879841041,"4":0.21839549669965144,"5":-0.20475941822888497,"6":-0.23180807842058346,"7":0.026473175053240358,"8":-0.010022877178605142,"9":-0.1047069598064635,"10":-0.2589540682581819,"11":0.09481801692006557,"12":-0.008834854867524748,"13":0.16674697047821638,"14":-0.07874175935766088,"15":-0.4961176331172644,"16":0.12181297167883105,"17":-0.09931420400816407,"18":-0.2285274332993172,"19":0.14449752704275096}},{"sx":1,"sy":1,"depth":20,"w":{"0":-0.12494588448536581,"1":-0.01326041995812998,"2":-0.09262308101258056,"3":-0.14650286869415738,"4":-0.08932777604792484,"5":0.12179787404561279,"6":0.18166250152400135,"7":-0.11921197382558955,"8":-0.0725640470239934,"9":-0.12875701002923629,"10":0.220818535413753,"11":0.0025230743667546524,"12":-0.14016307222563015,"13":0.02933250650538927,"14":0.0622848714585018,"15":-0.2822118639497358,"16":0.18465288337430022,"17":0.06611486432441863,"18":0.11240961292951468,"19":-0.015598253851970962}},{"sx":1,"sy":1,"depth":20,"w":{"0":0.29640015335953607,"1":-0.19455167604780846,"2":-0.12620763725616707,"3":0.08625356907988628,"4":-0.09626162303401124,"5":0.16438601198726283,"6":-0.11809924923632172,"7":-0.20334060595633918,"8":-0.021349019970889515,"9":0.20344380378738292,"10":0.11859961261427723,"11":0.0030665083732613506,"12":-0.21377281384363675,"13":0.21593323480675516,"14":0.10378507134660776,"15":0.07527804497570591,"16":0.14962974867619724,"17":-0.057194365699373945,"18":-0.18460092927419144,"19":0.06210839535317435}},{"sx":1,"sy":1,"depth":20,"w":{"0":0.04921709853238994,"1":0.05937113746165177,"2":-0.21895886647933124,"3":-0.10352624961859141,"4":0.12597975513824075,"5":0.19015674096512858,"6":0.0415127857695303,"7":-0.2773536774035985,"8":0.06717900783265168,"9":0.0190223046167653,"10":-0.08964816590492561,"11":-0.07872245400338902,"12":0.05214363564602439,"13":-0.3733916234874836,"14":-0.3097856869555884,"15":-0.6940563910872455,"16":-0.13612430592872707,"17":-0.013006949748959412,"18":-0.5208849162673321,"19":0.04495859500271162}},{"sx":1,"sy":1,"depth":20,"w":{"0":0.11813866689723002,"1":0.2240434082221609,"2":0.022074199688083333,"3":0.04817115915095815,"4":0.07167244113902323,"5":0.2040543024404555,"6":-0.2524325582727831,"7":-0.11296742197135776,"8":-0.07195815324547697,"9":-0.15800586655354656,"10":-0.251895109263336,"11":-0.14585005587897262,"12":0.14797228334356358,"13":0.025958627816104026,"14":-0.2785713782319212,"15":-0.05473763886356677,"16":0.06007887557030869,"17":-0.25418052584783685,"18":-0.014474825483467707,"19":0.07763307256843326}},{"sx":1,"sy":1,"depth":20,"w":{"0":-0.05318380910322086,"1":-0.19329682612666674,"2":-0.09204205121066977,"3":-0.11524170233406991,"4":-0.2230106175789755,"5":-0.25238755908297983,"6":-0.2363384161207931,"7":-0.06639339583273635,"8":-0.23850611773485667,"9":0.00022921477429732452,"10":-0.09521982525817728,"11":0.14289023159368888,"12":-0.181546949483106,"13":0.0768479035131986,"14":0.14075900822274864,"15":-0.20056059640693846,"16":-0.3101006951992977,"17":-0.0476742448836754,"18":-0.22516395583803708,"19":0.08835040017016073}},{"sx":1,"sy":1,"depth":20,"w":{"0":-0.24516310568159447,"1":-0.049624571149406924,"2":0.17883188440022502,"3":-0.09149449011668812,"4":-0.11188255828704993,"5":-0.10173121598742953,"6":0.27152363320191086,"7":-0.237624253312449,"8":0.16477953884357108,"9":0.06846062899649481,"10":0.08137173780218282,"11":0.016825822647535432,"12":-0.3580363418570098,"13":0.20629450969782454,"14":-0.04473387468966955,"15":-0.16029112610787913,"16":0.22875179447941138,"17":-0.21429567095218216,"18":0.06733330587655544,"19":-0.020010995223347233}},{"sx":1,"sy":1,"depth":20,"w":{"0":-0.17104870692426552,"1":0.11441242914345358,"2":0.15298308948058167,"3":-0.08298711509282021,"4":-0.3375518802412932,"5":-0.14619560988237984,"6":-0.24145366677953092,"7":-0.09162169049569509,"8":-0.1831603912082662,"9":-0.10224956935769766,"10":0.2333217487686038,"11":-0.2802608429148529,"12":-0.02893406901325371,"13":0.04337397477672152,"14":0.1208165325027978,"15":-0.6203168005648911,"16":-0.043314345719210494,"17":0.1369695112051405,"18":-0.04470085134340301,"19":0.2662031338691218}}],"biases":{"sx":1,"sy":1,"depth":20,"w":{"0":0.8474716563028586,"1":-2.2488590854487636,"2":0.6186079507109002,"3":-1.8049756851575938,"4":-0.6338965554532497,"5":-2.4993736948224123,"6":0.11957461528789497,"7":-1.4991527032064016,"8":-0.24930939740998226,"9":-1.7033800161399641,"10":1.7136835468311267,"11":-2.4222485346153224,"12":-0.7598684687834152,"13":-2.549166589941066,"14":0.3762552039949052,"15":-3.5477802464714467,"16":0.5768209883228954,"17":-1.7620128041902448,"18":-1.9239494568428692,"19":-3.9227551095907294}}},{"out_depth":20,"out_sx":1,"out_sy":1,"layer_type":"softmax","num_inputs":20}]}